%YAML:1.0
---
myHogDector: !!opencv-object-detector-hog
   winSize: [ 64, 128 ]
   blockSize: [ 16, 16 ]
   blockStride: [ 8, 8 ]
   cellSize: [ 8, 8 ]
   nbins: 9
   derivAperture: 1
   winSigma: 4.
   histogramNormType: 0
   L2HysThreshold: 2.0000000000000001e-01
   gammaCorrection: 1
   nlevels: 64
   signedGradient: 0
   SVMDetector: [ 1.51516367e-02, -4.44223061e-02, -4.71163876e-02,
       -1.13336667e-02, 3.10183540e-02, -1.50107797e-02, 5.30594867e-03,
       -1.56906061e-02, 2.32806988e-02, 8.96267500e-03, -9.90138203e-03,
       -2.15362199e-02, -8.76596104e-03, 8.70794337e-03, 1.29451128e-02,
       1.85350720e-02, -1.91383976e-02, 3.34110372e-02, 1.60310287e-02,
       -2.40954403e-02, 1.89039554e-03, 2.17266474e-02, 2.82805157e-03,
       -1.76218040e-02, -2.28118207e-02, -2.44125724e-02, 2.03984305e-02,
       3.15643474e-02, 9.78163444e-03, 7.23958062e-03, -5.75272506e-03,
       2.83767912e-03, 1.18091842e-02, 2.04427056e-02, -1.22818723e-02,
       4.14166711e-02, -5.41016459e-03, -1.49510819e-02, -9.43732634e-03,
       -1.08183799e-02, 1.47043786e-03, 6.66393526e-03, -2.50921957e-02,
       -6.22724108e-02, 1.04119326e-03, 1.74444206e-02, 7.03702727e-03,
       2.10966859e-02, 1.98442172e-02, 1.52283469e-02, 3.67626734e-02,
       -3.02521437e-02, 9.35526972e-04, 5.74348681e-03, -6.93268515e-03,
       -1.11967437e-02, -1.35720242e-02, -1.17608225e-02,
       -4.70792921e-03, 1.16441334e-02, -7.10541324e-04, -1.50888450e-02,
       2.15859408e-03, 1.11685246e-02, 8.87369923e-03, 1.89021428e-03,
       -4.52812202e-03, -6.01021980e-04, 2.12611891e-02, -1.78237930e-02,
       3.38718831e-03, 1.16519248e-02, 1.68471374e-02, -4.08511702e-03,
       -3.56532051e-03, -4.76192869e-03, 1.80865843e-02, 1.71216559e-02,
       -1.15275644e-02, 1.91607084e-02, 1.45419594e-02, -5.46931638e-04,
       1.75999682e-02, 2.74119969e-03, -6.39163132e-04, 1.91411301e-02,
       2.26568133e-02, -2.08731480e-02, 5.42420521e-03, 1.22424820e-02,
       -6.34703552e-03, -7.68662896e-03, 3.81100387e-03, -1.25933187e-02,
       -1.65181775e-02, 2.71733594e-03, -2.71004289e-02, -2.09837547e-03,
       -8.02103989e-03, 1.92158541e-03, 1.32172108e-02, 1.87257901e-02,
       1.38287647e-02, 1.62171535e-02, 2.27350835e-02, 2.01272871e-02,
       1.71088683e-03, 2.19747517e-03, 6.39365241e-03, 2.15208698e-02,
       -4.42338269e-03, -1.18522346e-02, 3.05651985e-02, 4.22419934e-03,
       -7.00345961e-03, -4.84981749e-04, 1.29393088e-02, 1.44177172e-02,
       7.57298339e-03, -1.26541255e-03, -1.60418190e-02, -1.22542726e-03,
       -8.87992047e-03, 1.39915729e-02, 8.25093966e-03, 4.69113654e-03,
       1.58910863e-02, 3.36619876e-02, 2.95381062e-04, 1.00791594e-02,
       3.90100013e-03, 1.13313617e-02, -4.59468411e-03, -7.30947999e-04,
       -1.91841759e-02, 7.68535025e-03, 1.80386007e-02, 3.80375306e-03,
       -6.10056566e-03, -3.37212011e-02, 1.04222596e-02, -1.42966229e-02,
       -1.43627245e-02, -6.74709445e-03, 3.03638238e-03, 3.73612810e-03,
       1.13046379e-03, 7.94296060e-03, 2.25001108e-02, -2.05660313e-02,
       3.18048289e-03, 1.44721903e-02, -5.39194187e-03, -4.09592222e-03,
       9.28506348e-03, -7.86577072e-03, -5.56604797e-03, 2.28425041e-02,
       -1.13411685e-02, -5.77744888e-03, 1.09826622e-03, -1.25711495e-02,
       3.67568713e-03, 8.09150655e-03, -1.99681454e-04, 1.38162449e-03,
       -4.37507592e-03, 9.22108628e-03, 2.88292504e-05, 5.38561167e-03,
       -9.11189243e-03, -2.56071575e-02, -4.44591418e-03,
       -1.92151312e-02, -7.51893036e-03, -3.21751498e-02,
       -3.18763545e-03, -8.87935888e-03, -1.16191357e-02,
       -1.09086251e-02, 2.89209699e-03, 2.51947772e-02, -3.57492198e-03,
       1.36212232e-02, 9.37728398e-03, -2.54939906e-02, -2.12985110e-02,
       2.68572494e-02, 1.74494777e-02, -2.89285947e-02, -2.76493579e-02,
       -2.44803783e-02, -1.54376552e-02, 2.44863350e-02, 5.93016995e-03,
       -1.54291168e-02, 2.71729268e-02, -1.33028300e-02, -1.28830143e-04,
       2.37832107e-02, -2.03291737e-02, 2.33654045e-02, -1.54106366e-03,
       5.49851917e-03, -1.80064363e-03, 1.02093350e-02, 2.68750917e-02,
       -2.41546389e-02, 6.09785831e-03, -4.18610536e-02, -2.07018703e-02,
       -9.39783920e-03, 1.89952683e-02, -1.76416449e-02, 2.42361277e-02,
       -2.06627008e-02, -5.79999480e-03, -6.42398093e-03,
       -1.97265111e-02, 1.00544253e-02, 2.78004911e-02, 3.21208703e-04,
       -2.15443596e-02, 1.79060437e-02, -1.67379100e-02, -4.76694852e-03,
       -2.30119657e-02, -2.63298471e-02, -1.85447894e-02,
       -5.90349315e-03, -1.99617129e-02, -4.83120456e-02, 3.10694915e-03,
       -4.83673858e-03, 2.47736908e-02, 1.63891371e-02, -1.45735042e-02,
       2.18977425e-02, 8.44265614e-03, 1.49689568e-02, -3.05646006e-02,
       2.09972374e-02, 1.02731278e-02, -9.24877170e-03, 1.71312597e-03,
       -2.70805117e-02, 1.78259034e-02, -8.85822717e-03, -1.26326364e-02,
       -3.79442200e-02, 1.68879405e-02, -4.94659506e-03, -1.17988801e-02,
       -1.93732921e-02, -1.88407470e-02, -3.57155828e-03, 1.20773651e-02,
       4.60929557e-04, -2.49137450e-03, 3.17899249e-02, 7.87975732e-03,
       -1.03852747e-03, -2.68889926e-02, -9.82202124e-03,
       -6.72746624e-04, -2.83636618e-03, -2.76584029e-02,
       -1.04133235e-02, 2.67441459e-02, -2.09968700e-03, 6.61159400e-03,
       2.53411625e-02, -1.62683390e-02, 4.21086214e-02, 2.80387141e-02,
       2.60025691e-02, -6.81850314e-03, 3.00492141e-02, 7.23573100e-03,
       -2.03990601e-02, 9.31236893e-03, -1.30323274e-02, -2.55297683e-03,
       -2.23538792e-03, -7.84180406e-03, -1.70970876e-02, 7.18441745e-03,
       -1.93336867e-02, 1.89646389e-02, -1.97485238e-02, -8.02112557e-03,
       3.78509029e-03, 1.83263123e-02, 5.17048873e-04, -1.42287777e-03,
       2.41853185e-02, 1.08684264e-02, -2.23494368e-03, -2.06496790e-02,
       -3.97592895e-02, -2.38568000e-02, 5.19093545e-03, 1.91632342e-02,
       -2.48068292e-02, -1.51789784e-02, -6.24467665e-03,
       -6.74068928e-03, 1.70596689e-02, 2.58265785e-03, 9.88293160e-03,
       -5.65083791e-03, -1.99205126e-03, -4.76033008e-03, 5.92805492e-03,
       2.03553140e-02, -3.53514142e-02, 1.01828240e-02, -1.20156733e-02,
       -8.79729073e-03, -1.89931039e-02, 4.60161502e-03, -2.58519482e-02,
       9.70666856e-03, 3.78158060e-03, 1.29638612e-03, -2.68491581e-02,
       -3.20072621e-02, -4.91764955e-03, 1.37599176e-02, 3.76491919e-02,
       1.19390842e-02, -2.33892556e-02, -1.57389864e-02, 2.29873899e-02,
       -1.02504091e-02, -4.06756476e-02, -1.88267976e-02, 8.12808238e-03,
       -2.51039471e-02, -7.18859909e-03, -2.29927525e-02, 2.02494245e-02,
       2.43041245e-03, 1.09606367e-02, 3.26877926e-03, 3.29051875e-02,
       1.09565957e-02, 4.83273640e-02, -1.21997232e-02, 3.07461005e-02,
       -9.67093976e-04, 1.17138438e-02, -7.51888473e-03, -1.81748513e-02,
       1.17482617e-02, 1.89453140e-02, 1.35400556e-02, -1.92813538e-02,
       -7.22714374e-03, -3.05335317e-03, -1.38752058e-03, 1.40336957e-02,
       -9.45458841e-03, -1.29754972e-02, 1.95902251e-02, -4.05299617e-03,
       -1.86005142e-02, 4.96544410e-03, 9.73951258e-03, -2.64951531e-02,
       -6.24985481e-03, -2.60160957e-02, -3.55346389e-02,
       -6.81202579e-03, -1.58870202e-02, -2.75386032e-02,
       -2.80517945e-03, -1.82797462e-02, 1.75737254e-02, -2.11679540e-03,
       -1.04542896e-02, 1.31768286e-02, 7.03269569e-03, 1.85849518e-02,
       -1.78865599e-03, -1.35790892e-02, 7.63070257e-03, -3.08463890e-02,
       -1.76939450e-03, 1.47755863e-03, -1.57110747e-02, -2.73787491e-02,
       1.19013451e-02, -1.33285727e-02, -9.54355928e-04, -7.69182434e-03,
       -3.35599389e-03, 1.57563929e-02, -4.93423222e-03, -1.36445565e-02,
       4.22601309e-03, -1.06644901e-02, 2.43790960e-03, 3.76584125e-03,
       -1.79587177e-03, -9.16399620e-03, -1.08893532e-02, 6.34494750e-03,
       -1.43048970e-03, 6.56462414e-03, -2.38334667e-02, -2.46185483e-03,
       5.14002005e-03, -1.57500356e-02, -9.26060602e-03, 1.22197401e-02,
       -2.09339731e-03, 1.87742822e-02, 2.63554920e-02, 1.56152649e-02,
       -1.08263344e-02, 1.20949082e-03, 2.86638434e-03, -2.62472592e-02,
       -1.27210291e-02, -1.42465169e-02, -1.88474939e-03, 2.09805425e-02,
       1.34134432e-02, 1.92072410e-02, 1.62298291e-03, -2.40010135e-02,
       1.18092196e-02, 9.33850463e-03, 1.82766560e-02, 1.26044024e-02,
       1.22337053e-02, 1.07407279e-03, 6.24424778e-03, 4.25114371e-02,
       2.32042447e-02, 2.28466513e-03, -1.95463449e-02, 2.07856875e-02,
       -8.49031191e-03, 1.39763923e-02, -1.42877568e-02, -1.56676816e-03,
       1.53095205e-03, 3.65578160e-02, -1.56728160e-02, 3.86614203e-02,
       2.20091380e-02, 1.52459759e-02, -5.78490272e-03, -4.65480005e-03,
       -6.01202901e-03, 2.05995124e-02, 4.68573009e-04, 6.62132225e-04,
       5.41088544e-03, -7.18119508e-03, -4.09130985e-03, 2.64649745e-02,
       -9.94532090e-03, -1.13620283e-02, -3.85836908e-03,
       -2.57538967e-02, -1.16593046e-02, -3.93337570e-03, 2.15706266e-02,
       -7.04446854e-03, 1.24859288e-02, -1.97570026e-03, -3.68748861e-03,
       1.14751318e-02, 1.14070242e-02, -2.07082294e-02, -1.53735215e-02,
       1.45449769e-02, -1.18439761e-03, 1.03102643e-02, 4.94383648e-03,
       -3.25024351e-02, -2.21193898e-02, -2.22054757e-02, 7.92108942e-03,
       -1.84382559e-04, 7.28110829e-03, 1.80043131e-02, 2.33315900e-02,
       1.88233200e-02, -1.18724874e-03, 6.19194889e-03, 4.88577923e-03,
       -1.61379091e-02, -5.42747369e-03, 9.11433622e-03, 1.35266492e-02,
       1.29321050e-02, 7.98480771e-03, 5.66328643e-04, 9.36979894e-03,
       -1.74452141e-02, 1.58888437e-02, -5.54472022e-03, 2.32400373e-02,
       -5.19763352e-03, 1.28578302e-02, 2.83620674e-02, -1.01564452e-02,
       -1.70605667e-02, -7.73967383e-03, 1.56335384e-02, -2.06458345e-02,
       -1.50540296e-03, -9.94210131e-03, 1.69441886e-02, 1.71149503e-02,
       5.50512271e-03, -3.87965292e-02, 2.16151997e-02, -2.43732962e-03,
       -1.66626163e-02, 8.07146356e-03, -8.30070302e-03, 2.05131657e-02,
       1.37015283e-02, -6.40468020e-03, 3.61041119e-03, -4.51721204e-03,
       3.27095650e-02, -1.32211167e-02, -8.65350105e-03, -7.89815374e-03,
       -1.01098539e-02, 4.57451493e-02, -1.48447054e-02, -1.86122991e-02,
       3.69002372e-02, 1.33482609e-02, -6.00628136e-03, 1.82100129e-03,
       8.62585288e-03, 1.22067761e-02, 5.56603167e-03, -9.37375799e-03,
       -3.78713536e-04, 1.11961793e-02, 6.67964807e-03, 1.32889645e-02,
       1.85340736e-02, 6.61187060e-03, 1.42167751e-02, 2.04996914e-02,
       5.60475653e-03, -9.66419280e-03, 2.04358157e-02, 1.31423995e-02,
       -3.25569473e-02, 7.55635696e-03, 1.10998992e-02, -2.32297134e-05,
       8.82616453e-03, -1.57409646e-02, -8.13643821e-03, 7.96396937e-03,
       -3.45773343e-03, -1.67088350e-03, 1.76988542e-02, 2.70878654e-02,
       -1.45224342e-02, 6.30099373e-03, -1.09045336e-03, -1.00186523e-02,
       1.05161313e-02, -1.08578326e-02, -6.20551128e-03, -1.21917408e-02,
       -2.24935403e-03, 9.85804200e-03, 3.29594151e-03, 1.16797164e-02,
       9.16467141e-03, 2.74119596e-03, 4.94425651e-03, -1.47850649e-03,
       1.37124769e-02, 5.80058480e-03, 2.67329324e-05, 1.39890257e-02,
       -5.04046306e-03, -1.96532160e-03, 9.15490836e-03, -1.57233234e-02,
       -4.00579162e-03, -1.93146020e-02, 5.11423964e-03, 1.81927383e-02,
       -4.49603936e-03, -2.38151085e-02, -1.40519170e-02, 2.63831276e-03,
       5.51240519e-03, 9.75435786e-03, -5.56006469e-03, 2.46479847e-02,
       2.64195795e-03, -3.95468390e-03, -1.89662278e-02, -6.05420303e-03,
       2.03338601e-02, -3.98969831e-04, -4.48318990e-03, 3.96760646e-03,
       1.43204443e-02, 7.95291457e-03, 4.39938798e-04, -5.71674295e-03,
       -6.04366511e-03, -1.61236897e-02, 1.74088981e-02, 2.05077231e-02,
       1.81451952e-03, -3.50885000e-03, 2.02923026e-02, 2.05391329e-02,
       1.76500678e-02, 3.83790146e-04, 2.24762619e-03, -2.35046167e-03,
       -2.12715659e-03, -2.12425068e-02, 6.68504927e-03, 1.22777268e-03,
       1.61140170e-02, -1.48063526e-02, -1.03188399e-02, -3.67888832e-03,
       1.54195623e-02, 1.04857981e-02, -3.49616446e-02, 1.66485943e-02,
       -4.95699607e-02, 2.75454391e-02, 5.99025143e-03, 2.61160289e-03,
       2.14996282e-03, 4.81276494e-03, 1.03745451e-02, -3.28903855e-03,
       -2.46754922e-02, 1.88461319e-02, -6.87268237e-03, 1.22485438e-03,
       9.40004305e-04, -7.34635768e-03, -1.34854978e-02, 1.89263001e-02,
       -7.41540967e-03, -3.56772356e-02, -1.86904240e-03, 1.83044653e-02,
       1.24526080e-02, -1.03471344e-02, -9.68158431e-03, 1.35261193e-02,
       -2.33398415e-02, 8.45655240e-03, 1.69923771e-02, -1.71345770e-02,
       -1.85689027e-03, -6.46956638e-03, 4.01399191e-03, -1.07798656e-03,
       -9.36134998e-03, -4.61942423e-03, 9.79809463e-03, -4.97009372e-03,
       -2.43589971e-02, -4.36838996e-03, 9.32192709e-03, 1.56107089e-02,
       -8.75338539e-03, -1.42931901e-02, 1.52231045e-02, -1.32003808e-02,
       -9.89829935e-03, -2.61938461e-04, -8.03511497e-03, 3.57305584e-03,
       1.87886171e-02, 2.75358092e-03, -5.97670907e-03, 1.00092348e-02,
       -1.77421868e-02, -2.65300763e-03, -6.69158204e-03,
       -1.99781787e-02, -1.71196144e-02, -6.96301507e-03,
       -5.41656977e-03, -8.34653061e-03, 4.54495549e-02, 1.72150508e-02,
       -3.51710208e-02, 4.82553430e-03, -4.24123928e-03, 4.54730820e-03,
       9.27663408e-03, 1.12778861e-02, -6.23416295e-03, -1.12043144e-02,
       -1.68971177e-02, -3.32564265e-02, -1.64250489e-02,
       -1.08680762e-02, -4.93965345e-03, -1.57136824e-02,
       -2.01377068e-02, -3.63252941e-04, 2.45027076e-02, -7.24197412e-03,
       -5.52299945e-03, -2.58558174e-03, -7.55259010e-04,
       -4.75490931e-03, 5.23658423e-03, -8.34193896e-04, 1.92437656e-02,
       2.60203946e-02, -9.93436947e-03, -1.97992139e-02, 1.62055176e-02,
       -3.54176085e-03, -3.02445106e-02, -8.22249055e-03,
       -3.59816640e-03, 1.17083071e-02, 2.64615361e-02, -1.48584861e-02,
       1.23786659e-03, -3.12699634e-03, 3.86463776e-02, 1.13013843e-02,
       1.55752031e-02, -6.33697584e-03, 3.06857913e-03, 9.11237765e-03,
       9.91969462e-03, -9.08920541e-03, 9.33171622e-03, 1.04117696e-03,
       -7.13877333e-03, 9.99093056e-03, -1.11256037e-02, 3.10785901e-02,
       1.71967000e-02, -6.23457553e-03, -6.23574667e-03, 1.05213067e-02,
       -4.10830183e-03, -5.92460949e-03, 1.71814878e-02, 1.87465339e-03,
       5.78498095e-03, 1.00407228e-02, -5.77786332e-03, -1.29934689e-02,
       9.51035507e-03, -8.45529046e-03, -1.70193110e-02, 7.93036353e-03,
       -2.41101086e-02, 5.34634246e-03, -5.85432805e-04, -2.27728553e-04,
       1.36024635e-02, 1.70825254e-02, 1.70177792e-03, 1.88512225e-02,
       1.38822431e-02, -2.00852919e-02, 2.16426491e-03, -9.71012225e-04,
       3.53109371e-03, -1.03287818e-03, 1.13862532e-03, -1.48498015e-02,
       1.35454896e-03, -6.05665240e-03, -2.12575197e-02, 4.92490688e-03,
       1.67203508e-02, 6.05220394e-03, 1.44668100e-02, 9.90689080e-03,
       -5.05873468e-03, 2.01148028e-03, 6.30455744e-03, 2.76446762e-03,
       -5.70654031e-03, -9.29948688e-03, -8.22320860e-03,
       -2.15179287e-02, -4.48350748e-03, -1.18660368e-02,
       -4.96448902e-03, 1.02315741e-02, 1.27199676e-03, 2.42708605e-02,
       2.57460587e-02, 1.94809474e-02, 1.71232391e-02, 3.02362163e-02,
       1.86470803e-02, 2.97905877e-02, 1.33949099e-02, -2.85744537e-02,
       3.44723207e-03, 2.11177301e-02, 1.58279743e-02, 3.97152919e-03,
       4.27355133e-02, 1.03953655e-03, -2.55695498e-03, -1.96389686e-02,
       -1.24879330e-02, 5.58192376e-03, -2.62779789e-03, 4.32608044e-03,
       -1.37522807e-02, -2.23823115e-02, 2.88127852e-03, -1.32935056e-02,
       2.88330833e-03, 9.01006255e-03, 1.46673305e-03, 1.13525949e-02,
       -1.15576163e-02, -1.47220222e-02, -1.65128056e-02,
       -1.37094324e-02, -3.75275277e-02, -1.43324649e-02,
       -2.04074886e-02, 9.73254349e-03, 2.97390353e-02, 8.35935306e-03,
       2.72511542e-02, 4.06587981e-02, 3.64652574e-02, -2.33566668e-03,
       2.64288695e-03, -2.77647050e-03, 6.29060087e-05, 2.89023877e-03,
       -3.55053954e-02, -9.26833320e-03, 1.59500819e-02, 9.02211294e-03,
       -8.57108738e-03, -1.18414208e-03, 3.96344904e-03, -1.43614504e-02,
       9.79594514e-03, -1.44320261e-02, 1.10880630e-02, -2.54837275e-02,
       -3.54475295e-03, -1.73086673e-02, 1.51769130e-03, -4.19015717e-03,
       -2.48400290e-02, -1.97713450e-02, -2.58705169e-02,
       -4.41823388e-03, -1.02015575e-02, -2.04334203e-02,
       -2.86480803e-02, -1.95882749e-02, -3.34516205e-02,
       -6.80694543e-03, 2.04627570e-02, -3.06201610e-03, 1.15301413e-02,
       1.74117126e-02, 4.09474224e-02, -1.63714832e-03, 3.02470084e-02,
       -1.34766651e-02, -1.60896610e-02, 1.94096297e-03, -3.72116789e-02,
       -1.35027675e-03, 1.27791818e-02, 1.99666359e-02, -2.66866777e-02,
       1.08742556e-02, -2.97843721e-02, 7.39638344e-04, 2.48310133e-03,
       -6.41836738e-03, 5.24772704e-03, -1.12777883e-02, -1.11317597e-02,
       -1.69109758e-02, -1.82510372e-02, 5.41865034e-03, -2.57991087e-02,
       1.28506590e-03, -8.83307494e-03, -2.08113436e-02, -9.23950691e-03,
       -2.36483272e-02, -8.93304124e-03, -1.93345565e-02,
       -2.81510688e-02, -3.39081837e-03, 1.12560727e-02, 2.25546816e-03,
       1.33611029e-02, 3.53719145e-02, 1.47528956e-02, -1.65157858e-02,
       2.44365446e-03, -3.75806075e-03, -6.82514254e-03, 7.14259921e-03,
       2.29453556e-02, 9.23899747e-03, 8.22332222e-03, -7.04150647e-03,
       -1.62196644e-02, -1.42279714e-02, -1.22793615e-02,
       -1.21812830e-02, -5.02151961e-04, -1.96357407e-02, 3.21778073e-03,
       -1.39457434e-02, -4.09571920e-03, -2.13912781e-03,
       -5.01266075e-03, -1.71926878e-02, -1.10068684e-02,
       -1.73973490e-03, -1.17335357e-02, -1.57905556e-02,
       -2.83470433e-02, -2.29273941e-02, -1.84497964e-02,
       -2.46035103e-02, -2.21710503e-02, 1.70336496e-02, 1.47255901e-02,
       -1.37033034e-03, 5.81271648e-02, 2.91733667e-02, 2.81920470e-02,
       2.82769110e-02, 4.16721106e-02, 2.14199498e-02, -1.87901240e-02,
       -4.62582568e-03, -2.00434569e-02, 4.17610444e-02, 3.38970236e-02,
       2.70259809e-02, 2.96840561e-03, 1.80418976e-02, -2.44051516e-02,
       -1.27961859e-02, 2.58059856e-02, 2.73155030e-02, -8.32033064e-03,
       -2.09992100e-02, -1.35086797e-04, -1.80445295e-02,
       -9.44012403e-03, -7.11319386e-04, 6.03215361e-04, -2.74471543e-03,
       -7.47753482e-04, -1.14302328e-02, -7.96315446e-03,
       -1.01860007e-02, -2.22520456e-02, -2.73032412e-02, 1.19623886e-02,
       -1.05511779e-02, 9.16334148e-03, 7.49330316e-03, 1.91140082e-02,
       9.61760897e-03, 1.90528110e-02, 2.70087011e-02, 1.66901425e-02,
       -3.14610195e-03, -1.27013251e-02, -1.92902051e-02,
       -1.86781343e-02, 4.35163826e-03, -2.66041746e-03, -1.19123273e-02,
       -7.26936338e-03, 6.72145141e-03, 3.73321422e-03, 4.91399411e-03,
       2.75564846e-03, 2.49484292e-04, -5.53364912e-03, 2.58487277e-02,
       -1.96239751e-04, 4.35850630e-03, 8.57964717e-03, 1.95090268e-02,
       7.17160990e-03, -7.85656832e-03, -4.39602043e-03, -2.10122373e-02,
       9.73044988e-03, -4.99408692e-03, 1.42873789e-03, 7.53647368e-03,
       4.86746617e-03, 6.70889276e-05, -9.90684610e-03, 2.72275810e-03,
       3.38874245e-03, 2.79105431e-03, 1.00450050e-02, -4.34628688e-03,
       -1.76098403e-02, -2.80304137e-03, 5.15722577e-03, -3.05581372e-02,
       8.88322014e-03, 9.28844325e-03, -1.76553614e-03, -3.35286953e-03,
       -1.99853666e-02, -4.70922589e-02, -1.88119169e-02,
       -1.91244384e-04, 2.26129242e-03, 1.03462683e-02, -2.54294369e-02,
       4.75687813e-03, -1.80869680e-02, -1.40670862e-03, 1.11343833e-02,
       1.99580193e-02, 2.41361782e-02, -1.26262205e-02, -4.09187097e-03,
       -1.73055986e-03, -3.32704419e-03, 8.88654497e-03, -8.91083386e-03,
       -1.68022178e-02, 2.09170971e-02, -1.13952933e-02, -2.56345384e-02,
       1.33997118e-02, -1.20228948e-02, 1.38309998e-02, -3.23099340e-03,
       -1.33795617e-02, -7.19977031e-03, 5.15337661e-03, 1.43532995e-02,
       -9.37303249e-03, -6.34210650e-03, -1.45298876e-02, 1.39586031e-02,
       4.51121479e-02, -9.08857211e-03, -2.27740221e-02, 3.63181122e-02,
       7.75496615e-03, -2.59367805e-02, 2.86305090e-03, 2.72009685e-03,
       1.84415039e-02, 2.87923627e-02, 5.80147281e-03, 2.63446793e-02,
       1.49782887e-02, 5.26046893e-03, 1.49843898e-02, 2.37120874e-02,
       2.42732000e-03, 1.15891639e-02, 2.50219330e-02, 1.82964932e-02,
       1.38288960e-02, 3.21673118e-02, 1.69777945e-02, -3.09676714e-02,
       -6.27334276e-03, 7.34171947e-04, 3.50411196e-04, 2.87923682e-02,
       -9.42032877e-03, -7.69958552e-03, -1.39638018e-02, 3.20981606e-04,
       5.38917957e-03, -1.17434366e-02, 9.08636395e-03, -1.79824773e-02,
       1.92695651e-02, 6.51291851e-03, 1.36385532e-02, -1.34951584e-02,
       -5.15545602e-04, -1.76606178e-02, -1.34318592e-02,
       -1.06728412e-02, 3.50488350e-03, 5.93011314e-03, -4.42542089e-03,
       -4.80423169e-03, -1.08461510e-02, 3.61524289e-03, -4.30955458e-03,
       8.71248823e-03, 1.20888753e-02, -2.30582757e-03, 8.66219867e-03,
       -2.87452305e-04, 1.31924655e-02, 1.91978440e-02, -1.59601327e-02,
       -4.14266391e-03, 2.76493561e-02, 1.71143971e-02, -2.99307471e-03,
       4.59074508e-03, -1.40313506e-02, 4.75115696e-04, -1.39095215e-02,
       6.58024801e-03, 1.72607526e-02, 2.36255880e-02, 3.10371304e-03,
       -3.56031246e-02, 1.18985781e-02, -2.09593102e-02, 1.97888515e-03,
       1.67499147e-02, -1.06165477e-03, -1.60359628e-02, -1.42663261e-02,
       1.42763508e-03, 2.83442866e-02, -1.67741347e-02, -2.03027148e-02,
       -2.05422025e-02, 2.22126059e-02, 5.55417733e-03, 1.86682474e-02,
       -2.53981142e-03, 1.36791626e-02, 2.74748188e-02, 1.47137102e-02,
       7.22090574e-03, -2.98534594e-02, 1.59503724e-02, -5.47440909e-03,
       -1.12654793e-03, 3.36370543e-02, 2.77795009e-02, 1.34023065e-02,
       3.12192878e-03, -2.74726115e-02, -1.80965923e-02, 1.89008005e-02,
       3.47683579e-02, 5.62102199e-02, 2.68602241e-02, 3.62409912e-02,
       5.49545325e-03, 2.41921768e-02, 2.25581378e-02, -2.12840550e-02,
       1.80031266e-02, 1.01604266e-04, -3.24033350e-02, 8.60827137e-03,
       1.37096029e-02, 2.54855826e-02, -1.45185022e-02, -1.61011852e-02,
       -1.65087655e-02, 4.32263035e-03, -1.64741389e-02, -1.75956972e-02,
       3.72057445e-02, 2.92568095e-02, 3.41029628e-03, -1.35672623e-02,
       5.86634036e-03, 1.80987045e-02, -3.27273179e-03, 4.55762595e-02,
       3.95008028e-02, 1.55364545e-02, 1.37769636e-02, -1.52200705e-03,
       -2.17684917e-02, 1.07143298e-02, 3.73847745e-02, 5.74295036e-02,
       1.16785318e-02, -1.15776258e-02, 4.63765748e-02, 5.08235469e-02,
       1.33535145e-02, -3.80904973e-03, 4.00098264e-02, 3.83812971e-02,
       3.02283373e-02, 4.16010665e-03, 9.80619937e-02, 9.44132730e-02,
       9.37471725e-03, -2.48397756e-02, -2.71303989e-02, 1.85364969e-02,
       1.55503210e-02, 1.84668377e-02, 2.63908878e-02, 5.95721304e-02,
       2.16629524e-02, -2.10612640e-03, -1.93887558e-02, -6.10192539e-03,
       1.64184459e-02, 1.35695850e-02, -4.50356025e-03, -2.10320838e-02,
       3.77860963e-02, 7.39963353e-02, 2.63339188e-02, -1.38044208e-02,
       -4.03996855e-02, -4.88782942e-04, 1.91346370e-02, -2.42382474e-02,
       -9.18897334e-03, 1.17033543e-02, 8.17101565e-04, -1.61054619e-02,
       -4.69192341e-02, -2.40061339e-02, -9.49989911e-03, 1.86382397e-03,
       -5.71927894e-03, 4.40752730e-02, 5.00125438e-02, -4.26575448e-03,
       6.16161677e-04, -3.47301760e-03, 1.34694073e-02, 3.26936468e-02,
       3.49445529e-02, 2.24882606e-02, -6.61345432e-03, 4.32041660e-02,
       2.72651147e-02, 3.50198289e-03, -1.66255310e-02, -1.53610455e-02,
       1.75983477e-02, 2.99134944e-02, -1.86385978e-02, 1.18189435e-02,
       9.06249695e-03, -1.86116397e-02, -1.02523947e-02, -1.23805087e-02,
       -2.30432046e-03, 1.11365179e-02, 7.02767493e-03, 8.25576577e-03,
       -1.31449162e-03, 2.66510006e-02, 1.25959516e-03, -2.45790202e-02,
       -1.79791711e-02, -2.19723303e-02, 1.62965071e-03, 6.40168227e-03,
       1.79948434e-02, 9.74881928e-03, 2.95922887e-02, 3.40488204e-03,
       -3.59841180e-03, -6.19556988e-03, -6.91466546e-03, 3.93886268e-02,
       3.14082950e-02, -1.19892787e-03, 4.85344119e-02, 3.83324698e-02,
       1.99905317e-02, -7.27595203e-03, -4.53567860e-04, -6.26069741e-05,
       1.04416097e-02, 5.38535276e-03, 1.18855247e-02, 1.36365257e-02,
       3.67205329e-02, -3.04039242e-03, -1.14309099e-02, -1.02155125e-02,
       6.41405908e-03, 1.31086614e-02, -3.57374479e-03, -2.26356890e-02,
       1.57273747e-02, -1.02858862e-03, -3.09297722e-02, -2.97207199e-02,
       -1.25729833e-02, 5.04157180e-03, -9.37217660e-03, -1.60739869e-02,
       1.47198979e-02, 5.79185300e-02, 4.58393581e-02, 2.71356050e-02,
       -9.19014588e-03, 9.22626443e-03, 1.39009589e-02, 1.73069090e-02,
       1.24417180e-02, 2.47783717e-02, 3.56279165e-02, 5.03691025e-02,
       -2.50493898e-03, -2.26609409e-02, -5.38321212e-03, 2.20115110e-03,
       1.47942705e-02, -1.89049414e-03, 3.05701718e-02, 1.77487135e-02,
       2.65403930e-02, -1.38935437e-02, -6.48898538e-03, -8.94712750e-04,
       4.57242224e-03, -4.63471108e-04, 7.41990330e-03, -8.15040618e-03,
       -2.21596714e-02, 2.89913733e-03, -1.67294517e-02, -4.10049036e-02,
       -1.11211753e-02, -3.82524468e-02, 6.00241683e-03, -1.98448673e-02,
       -9.52985510e-03, 1.46895144e-02, 4.03082371e-02, -5.56965312e-03,
       3.14342417e-03, 3.07658594e-03, 2.09628493e-02, -7.41236785e-04,
       2.29076482e-02, 3.17368954e-02, 1.46468785e-02, 2.92631965e-02,
       -3.96682619e-04, -1.14875939e-02, 1.86800342e-02, 4.43271641e-03,
       1.22701395e-02, 2.51740776e-02, 3.19126584e-02, 9.70634352e-03,
       9.75047611e-03, -3.27247125e-03, -1.40549866e-02, -3.55107011e-03,
       5.54021401e-03, 2.74667572e-02, 2.88500283e-02, 3.71297374e-02,
       -3.47364112e-03, -7.66118383e-03, -1.60782151e-02,
       -3.97214293e-02, -6.44680299e-03, -4.27557854e-03,
       -2.35638376e-02, 3.10231186e-02, 2.81796907e-03, -1.58205293e-02,
       3.46149243e-02, -6.27706433e-03, -1.36815291e-02, 1.75893027e-02,
       1.70196295e-02, -7.95913208e-03, 2.13583186e-02, 1.36170462e-02,
       1.78655386e-02, 2.06927191e-02, -2.15038452e-02, -1.35971550e-02,
       5.64671261e-03, -1.02838855e-02, -1.20361662e-02, 3.60117890e-02,
       6.36191713e-03, -8.95619206e-03, 2.87138168e-02, -8.90586432e-03,
       -3.06089427e-02, -6.22667000e-03, -3.64505616e-03,
       -1.94825120e-02, 1.13402549e-02, -2.21718457e-02, 6.06073253e-03,
       2.86961049e-02, -1.22396732e-02, -2.48998851e-02, -5.94641361e-03,
       -1.59323979e-02, -4.09453991e-04, 1.06694046e-02, 1.18863024e-02,
       -2.35522608e-03, 9.70217213e-03, -3.69966682e-03, 1.71439874e-03,
       -1.32165058e-03, -1.16166780e-02, -2.25536171e-02, 6.08796533e-03,
       2.66435929e-03, 8.41897726e-03, 4.17473202e-04, -1.15434208e-03,
       -4.37398395e-03, -2.00265646e-02, -1.87392961e-02,
       -2.56467480e-02, -8.23466852e-03, -2.10261643e-02, 1.12107592e-02,
       4.01902525e-03, 2.14674585e-02, 1.52616389e-02, 8.54803808e-03,
       -1.51554849e-02, -2.42659673e-02, 1.27405878e-02, 2.91560739e-02,
       -1.54001033e-03, 1.28415851e-02, -5.38300164e-03, 1.68130510e-02,
       -2.72359676e-03, -7.98439980e-03, -2.04007491e-03, 4.45724204e-02,
       -5.58150187e-03, 2.54485700e-02, 5.00896061e-03, 1.66726124e-03,
       1.03378100e-02, -6.02439046e-03, -7.85395037e-03, -2.41678441e-03,
       7.04207597e-03, 1.65860504e-02, -3.20770331e-02, -1.50644016e-02,
       -1.78671610e-02, -1.29328258e-02, -3.24352607e-02,
       -4.59709652e-02, -3.01111322e-02, 1.33388052e-02, -2.25568209e-02,
       1.25690652e-02, 4.48239371e-02, 3.21925841e-02, 4.09943983e-02,
       4.76755807e-03, 1.83478128e-02, 1.81037579e-02, 5.00551611e-02,
       2.30990327e-03, 7.70243874e-04, 4.23781425e-02, 2.62010098e-02,
       -3.97721166e-03, 3.08531411e-02, -1.75831374e-02, 8.89793783e-03,
       4.24533859e-02, -1.34362094e-02, -1.46037713e-02, -1.74324811e-02,
       -6.32351125e-03, -1.05058530e-03, -2.87844171e-03, 1.13239856e-02,
       1.31460736e-02, 3.92027795e-02, 2.34073657e-03, -4.22908086e-03,
       -1.49935959e-02, -9.84039996e-03, -1.95747912e-02,
       -2.88334452e-02, -2.41213273e-02, -1.39392028e-02, 1.69446412e-02,
       1.03631092e-03, 1.21237487e-02, 1.62920412e-02, 4.52805730e-03,
       1.26287965e-02, 2.85184272e-02, 3.25609073e-02, 1.31568955e-02,
       4.68365215e-02, 1.62263196e-02, 4.43190616e-03, -2.05413476e-02,
       -1.37577010e-02, -3.94395888e-02, 2.66520511e-02, -7.49088998e-04,
       -2.10569277e-02, 6.58707519e-04, -3.48008461e-02, 2.79828887e-02,
       1.35767441e-02, 2.81314142e-02, 2.44853012e-02, 1.62415125e-03,
       1.00950478e-02, -8.17242265e-03, 9.89751704e-03, 1.98311992e-02,
       2.53325328e-03, -1.47536211e-02, 1.51382331e-02, -2.74763373e-03,
       -1.57553256e-02, -1.18674207e-02, -2.02501249e-02,
       -1.71408858e-02, 9.14460700e-03, 2.05993373e-02, 1.78851914e-02,
       3.14273536e-02, 3.25886346e-02, 3.01100351e-02, 3.67026962e-02,
       1.46279521e-02, 1.67982634e-02, -6.27959054e-03, 3.28570255e-04,
       6.48774160e-03, 1.40516637e-02, 1.79325547e-02, -1.36844749e-02,
       3.60424444e-02, -1.29206060e-02, -9.18180309e-03, -1.03206588e-02,
       -1.51770804e-02, -3.57329734e-02, 1.27496738e-02, -1.22060981e-02,
       2.22082231e-02, -8.35406128e-03, 1.00947935e-02, 1.48223033e-02,
       8.75679404e-03, 5.70163969e-03, -3.43442038e-02, 4.48943628e-03,
       -5.47034992e-03, 1.71839427e-02, 1.81381335e-03, -3.07772472e-03,
       3.18447431e-03, 3.41064222e-02, -1.76011841e-03, 5.38273156e-03,
       2.10551582e-02, 3.88085060e-02, 1.38925957e-02, 5.17918058e-02,
       3.36397178e-02, 2.51238309e-02, -1.17990014e-03, 1.03249801e-02,
       -6.60551637e-02, -8.17529112e-03, 1.15231443e-02, -2.51447167e-02,
       -2.18031928e-02, -2.01994814e-02, -3.26340236e-02, 1.38905700e-02,
       3.12526897e-02, -2.07298212e-02, 7.32158683e-03, 5.88096026e-03,
       -1.08321300e-02, -3.80344718e-04, -1.85216423e-02,
       -2.91673914e-02, 1.79973673e-02, 2.09521912e-02, -3.40734096e-03,
       -2.01348998e-02, 2.88158073e-03, -9.06242616e-03, 6.50563044e-03,
       -1.02617629e-02, -1.37189720e-02, 1.58602986e-02, 2.46647950e-02,
       -2.60924920e-02, 1.19523611e-03, 2.36261711e-02, -1.33204916e-02,
       4.68980754e-03, -1.35392174e-02, -2.11430136e-02, 3.51545848e-02,
       2.64510885e-02, 1.58708058e-02, 1.48736071e-02, 2.58554127e-02,
       -1.35358311e-02, 1.51048945e-02, 7.28977798e-03, -7.52849830e-03,
       7.64121627e-03, 5.89999883e-03, -2.02561766e-02, 5.59618138e-03,
       1.63608824e-03, 2.05123983e-02, -1.83136128e-02, -2.67822333e-02,
       -2.57515367e-02, 1.27096446e-02, 2.32789740e-02, -1.06257922e-03,
       3.52495699e-03, -8.64402764e-03, 9.11254715e-03, 6.10784907e-03,
       -2.05713175e-02, -3.10979262e-02, 2.91093830e-02, 2.81514041e-02,
       -6.93352253e-04, -2.50428542e-02, 6.92798523e-03, 9.04719625e-03,
       6.09802408e-03, 3.31404954e-02, -2.65783258e-03, 1.16423424e-02,
       2.55881492e-02, 8.17333348e-03, -2.74781063e-02, 2.50976253e-02,
       -1.79370760e-03, -1.64821406e-03, 1.53909521e-02, 1.51817994e-02,
       1.32472126e-03, -1.01753268e-02, -1.34640802e-02, 1.12692397e-02,
       1.21273873e-02, 1.62286945e-02, 7.00486172e-03, 9.15404595e-03,
       -1.82504226e-02, 1.87440291e-02, -1.25312563e-02, 6.32836595e-02,
       6.01105541e-02, 4.98376936e-02, 4.56958227e-02, 2.36280728e-02,
       4.86731008e-02, 1.97833572e-02, -1.02214329e-02, 6.62060268e-03,
       -1.89434867e-02, -7.00914627e-03, -2.36213673e-03, 1.74825154e-02,
       1.62714496e-02, 2.99884360e-02, -1.50941592e-02, -4.54685371e-03,
       -1.09909773e-02, 1.43633131e-02, 4.22150642e-02, 4.52156179e-02,
       3.35510261e-02, 3.52624618e-02, 7.45341629e-02, 4.75662760e-02,
       1.06265368e-02, 3.50970402e-02, 3.71900462e-02, 1.36685874e-02,
       1.78592615e-02, -4.29737568e-03, -6.19466882e-03, 3.44826840e-02,
       5.51593564e-02, 4.93868403e-02, 2.72631529e-03, -1.26713607e-02,
       3.04169673e-02, 7.00490270e-03, -6.55393256e-03, -3.68910353e-03,
       3.15965414e-02, 4.60390002e-02, 2.32299361e-02, 4.71837111e-02,
       5.68473898e-02, 3.62531543e-02, 2.07828563e-02, 1.09133609e-02,
       -5.37709054e-03, 2.45972965e-02, 3.61349583e-02, 3.20488513e-02,
       1.91437900e-02, 2.58289091e-02, 4.73687686e-02, -8.46700091e-03,
       6.27718028e-03, 6.09629415e-03, 4.36526015e-02, -8.21026601e-03,
       -8.84667039e-03, -1.87797807e-02, 2.63495818e-02, 4.42337394e-02,
       2.19103657e-02, 2.45525353e-02, 1.68110710e-02, 3.64073738e-02,
       3.87192927e-02, 6.28953660e-03, -2.57749744e-02, -2.44286098e-02,
       4.67865873e-04, 1.03373602e-02, 1.46563314e-02, -1.82057649e-03,
       1.46633266e-02, -1.96454721e-03, -9.32751130e-03, -5.18847909e-03,
       2.10779514e-02, 4.28065658e-02, 1.29637672e-02, 2.56136637e-02,
       2.81261895e-02, 6.78209439e-02, 2.48602871e-02, -3.40588577e-02,
       -1.93936918e-02, -8.11824517e-04, 2.34418977e-02, -1.44718941e-02,
       1.80534683e-02, -1.54561345e-02, 1.92855243e-02, -1.53927328e-02,
       -3.45109738e-02, -2.01791152e-02, -9.31268930e-03,
       -3.74987815e-03, 1.26007553e-02, 8.46842828e-04, 7.17683462e-03,
       9.79670882e-03, -5.88689325e-03, 1.20120710e-02, -1.76332649e-02,
       5.51498169e-03, -8.09164345e-03, -2.23246366e-02, -4.74926084e-04,
       -2.82098874e-02, -1.73475817e-02, -1.74141433e-02,
       -1.10998275e-02, 2.37089247e-02, 1.84245296e-02, 1.85367316e-02,
       -1.21844551e-02, -1.29418904e-02, -5.44686220e-04, 2.71564685e-02,
       4.41079680e-03, 1.07699540e-03, 3.60209704e-03, -2.05885489e-02,
       -2.43195388e-02, -4.40107137e-02, -1.88624952e-02,
       -3.63799930e-02, 2.19964460e-02, -5.48365526e-04, 7.84096215e-03,
       -1.50024444e-02, 1.26647688e-02, 1.02784885e-02, 8.47709272e-03,
       1.05923733e-04, 6.16731681e-03, -1.10145835e-02, -6.10691449e-03,
       -3.56953070e-02, -1.31040504e-02, 3.45961424e-03, -1.86868329e-02,
       -1.02564227e-02, 1.64899174e-02, 3.94848827e-03, 1.01817381e-02,
       3.05220019e-03, -6.46630535e-03, -1.95776951e-02, -7.22571509e-03,
       -6.87098000e-05, -3.95507406e-04, -1.27659598e-02,
       -1.50430854e-02, -4.39947285e-03, -1.24491658e-03,
       -2.49838326e-02, 5.21694077e-03, -2.07684021e-02, 9.38845426e-03,
       2.19686842e-03, 5.41993557e-03, -1.79970972e-02, -2.74986736e-02,
       -3.91439488e-03, -2.68912800e-02, -2.66694408e-02, 2.09611617e-02,
       -1.09186312e-02, 9.88850184e-03, 2.19744444e-02, 1.37944901e-02,
       3.30185443e-02, 1.60673857e-02, -3.05286013e-02, -1.78607050e-02,
       -6.58222998e-04, -8.94399080e-03, -5.80336899e-03, 2.81669851e-02,
       -1.11476023e-04, 1.34340266e-03, -4.91476618e-03, -2.45598089e-02,
       -2.65764780e-02, -1.17244106e-02, 1.26114199e-02, 1.61903035e-02,
       1.95573997e-02, -9.50920861e-04, -1.05773017e-03, 6.83057355e-04,
       -5.40065579e-02, -1.41914198e-02, -1.69436000e-02,
       -2.27976847e-03, 2.18044454e-03, 3.31159718e-02, -2.74543371e-02,
       -1.39686279e-02, -5.59533061e-03, -3.00179590e-02,
       -2.24013440e-02, -1.30575597e-02, -2.52502132e-02,
       -9.06293653e-03, -7.04977568e-03, -4.60014882e-04,
       -1.37774916e-02, 5.07050147e-03, -1.31640839e-03, -8.11379030e-03,
       7.98018277e-03, -1.69220287e-02, -2.02911217e-02, 4.09214961e-04,
       -2.01361421e-02, -1.67997945e-02, 1.00904834e-02, -4.25477605e-03,
       1.89459119e-02, 9.82146244e-04, -6.35385886e-03, 8.07589293e-03,
       7.97638483e-03, -3.98224965e-02, -1.51953353e-02, 2.50370111e-02,
       -4.10973206e-02, 1.89523064e-02, 1.59338769e-02, -1.18781244e-02,
       -9.88288224e-03, 8.69614352e-03, -6.21838495e-03, -7.96235073e-03,
       4.21780571e-02, 7.98046030e-03, 2.26269867e-02, 6.27876669e-02,
       3.12836538e-03, -2.10659504e-02, -2.03965660e-02, -1.10438177e-02,
       -9.22592729e-03, 1.12988781e-02, 1.46549959e-02, 2.84336302e-02,
       6.32568970e-02, 6.28370326e-03, -1.89628229e-02, -8.59203469e-03,
       2.18523294e-03, -9.93104372e-03, 2.53593344e-02, -2.98215542e-04,
       1.04078259e-02, 1.30381063e-02, -1.24385785e-02, -2.78386623e-02,
       -1.74996807e-04, -1.90565716e-02, 1.06883412e-02, 4.77552824e-02,
       2.62809619e-02, -9.75507498e-03, -1.14655336e-02, -1.85601762e-04,
       -3.36511843e-02, -1.22715654e-02, -1.65667664e-02, 1.16395783e-02,
       4.27766405e-02, -3.96625884e-03, 2.79846992e-02, 2.85095163e-02,
       1.05414111e-02, -6.54639769e-03, -8.01411457e-03, -1.63645986e-02,
       -3.07109915e-02, 3.53202049e-04, 1.35800885e-02, -4.10501100e-03,
       2.84029953e-02, -1.13503132e-02, -8.83482862e-03, -9.72755160e-03,
       -2.71361899e-02, -4.93955240e-03, 2.61375885e-02, 1.44724585e-02,
       2.08994783e-02, -1.75761674e-02, -2.95196287e-02, -1.68899521e-02,
       -1.26717081e-02, 1.79753650e-03, -5.42629370e-03, 1.75460484e-02,
       1.93333868e-02, -4.21418576e-03, 1.90749299e-02, -1.38394227e-02,
       -4.29745540e-02, -2.87059620e-02, -3.97300906e-02,
       -1.82077959e-02, 4.11096551e-02, 1.53069571e-02, 1.83772519e-02,
       3.86350453e-02, 1.94145683e-02, 1.93951279e-02, -2.78056040e-03,
       9.32183117e-03, 7.98439793e-03, 8.94014165e-03, 3.48013826e-02,
       4.32695774e-03, 3.16905491e-02, -4.39345196e-04, -2.03004312e-02,
       2.06831358e-02, -2.06039567e-02, -4.25112061e-03, 9.11874883e-03,
       6.13127789e-03, 2.29069926e-02, 1.78487282e-02, -8.61771777e-03,
       -1.07498514e-02, -9.81541444e-03, 8.64742044e-03, 1.43823586e-02,
       3.98255996e-02, 2.62305625e-02, 1.38924541e-02, 1.32923862e-02,
       -1.07332959e-03, -2.21456047e-02, 2.75937989e-02, -1.91334765e-02,
       -1.77731495e-02, 2.33519766e-02, 2.24398472e-03, 1.11396480e-02,
       2.01167352e-02, 2.23411800e-04, 2.35157199e-02, 5.79027124e-02,
       4.87015136e-02, 1.08273365e-02, 2.43518595e-02, 1.46387499e-02,
       7.01096328e-03, -1.78454705e-02, -2.41513364e-02, -5.40552773e-02,
       -1.09142475e-02, -4.73429896e-02, -3.83615643e-02,
       -6.45889714e-03, 7.99641944e-04, 5.42637985e-03, 2.09051725e-02,
       1.92715339e-02, 4.29779701e-02, 3.66577506e-02, 3.03446371e-02,
       6.49188459e-03, 1.45452553e-02, 6.98378077e-03, -1.39009692e-02,
       -1.70795787e-02, -2.52613667e-02, -3.93403322e-02,
       -1.81404315e-02, -4.81017530e-02, -3.70393693e-02,
       -3.77011411e-02, -1.13240760e-02, 2.60835551e-02, 1.01698069e-02,
       1.32615780e-02, 1.98599566e-02, -2.12217849e-02, 1.03796087e-02,
       -9.58585087e-03, 2.89643221e-02, 3.81285958e-02, 2.07126196e-02,
       1.23441322e-02, -8.49264022e-03, 9.36191715e-03, -3.18312794e-02,
       -9.60427709e-03, -1.21876248e-03, 2.56787837e-02, 2.99929902e-02,
       1.49180070e-02, 1.82884987e-02, -5.80859929e-03, 2.42623501e-02,
       -1.94665696e-02, 3.29678766e-02, 6.98161218e-03, -1.13560085e-03,
       1.84237584e-02, 1.96068864e-02, 2.21786518e-02, -1.73188783e-02,
       2.32103243e-02, -2.31727473e-02, -1.95282616e-03, -2.94416677e-04,
       8.56638234e-03, 2.94861607e-02, 7.67937303e-03, 1.16656432e-02,
       -1.06780212e-02, 4.49176989e-02, 3.84644198e-04, 1.23590613e-02,
       2.06826197e-04, 1.01779448e-02, 1.42963522e-03, 1.97676886e-02,
       -4.46189493e-02, -8.86827521e-03, -1.76878218e-02,
       -3.54609825e-02, -2.16250997e-02, -7.82260299e-03,
       -4.82138321e-02, 1.94937233e-02, 1.12155760e-02, 7.62859359e-03,
       -8.41224194e-03, 5.38539737e-02, -3.19895311e-03, 2.55372990e-02,
       -8.57015327e-03, -1.75700355e-02, 1.02475146e-02, -6.05980726e-03,
       -1.97494626e-02, 1.62646137e-02, 8.88966862e-03, -2.47170758e-02,
       1.32942526e-02, -1.04192616e-02, -6.67013675e-02, -1.85532644e-02,
       1.86775140e-02, -2.10019406e-02, -9.15282965e-03, -5.15881414e-03,
       1.07956538e-02, 2.73099076e-02, -8.44565779e-03, -1.67033281e-02,
       3.20775919e-02, 2.49745175e-02, 1.43239705e-03, 2.45350040e-02,
       2.76909899e-02, 4.55871312e-04, 7.10095093e-03, -1.26443366e-02,
       -1.90786552e-02, 1.20773446e-02, 1.48374382e-02, -1.66766103e-02,
       -4.82003298e-03, 1.63084604e-02, 3.95271694e-03, 1.66742820e-02,
       1.77511033e-02, 9.93528869e-04, 1.40703693e-02, 2.41089277e-02,
       -8.63464270e-03, 6.01978181e-03, 2.65168119e-02, -7.52526475e-03,
       9.00191348e-03, 1.34039186e-02, 2.25914028e-02, -6.78476528e-04,
       7.44363386e-03, 3.81039712e-03, -1.34246834e-02, -1.13053778e-02,
       4.52076504e-03, 2.37914119e-02, 3.26786004e-02, 8.24269280e-03,
       -4.79974737e-03, 2.94676684e-02, 4.79792524e-03, -5.01293503e-03,
       -1.13703543e-03, -2.25710943e-02, 2.63838633e-03, 1.69797409e-02,
       2.32977271e-02, 1.80972461e-02, -6.51138369e-03, -1.29994592e-02,
       -4.50788019e-03, 2.19930820e-02, 1.13279391e-02, -1.35498475e-02,
       -1.74045358e-02, -1.74223073e-02, -3.24774459e-02, 2.22201366e-02,
       -5.95177803e-03, 2.31558904e-02, 1.15408869e-02, 6.66169636e-03,
       6.95278309e-03, -2.22648680e-02, -5.29009709e-03, -1.46841758e-03,
       1.51314856e-02, -2.93886084e-02, -8.69097840e-03, -9.51801240e-03,
       -8.12631100e-03, 1.80661175e-02, 1.65081304e-02, 4.11464367e-03,
       -1.19914580e-02, 8.41086451e-03, -4.02689073e-03, 2.14374568e-02,
       -9.78814997e-03, -7.05993921e-03, 3.18376645e-02, 6.36727959e-02,
       4.24168631e-02, 3.78035046e-02, -3.26157291e-03, -2.56627388e-02,
       -1.05323328e-03, -9.16673522e-03, 1.03151249e-02, -1.01541867e-03,
       -1.73596777e-02, -2.76774559e-02, -1.07980398e-02,
       -1.60374194e-02, -2.51036584e-02, -2.98313168e-03,
       -5.79276762e-04, -1.91552134e-03, 8.40960070e-03, 5.47745451e-03,
       4.26296704e-03, 7.33133359e-03, 5.66086844e-02, 6.50012568e-02,
       3.37275490e-02, -1.40871275e-02, 1.39323354e-03, -5.26575232e-03,
       2.34702006e-02, 3.18577215e-02, 3.23464982e-02, 4.52062152e-02,
       7.20025674e-02, 4.28027213e-02, 2.17771530e-03, -1.06147937e-02,
       4.31631915e-02, 5.10882027e-02, -6.75179483e-03, 2.64917389e-02,
       -1.83714903e-03, -9.47854016e-04, -5.90981171e-03,
       -4.32629092e-03, 1.03328116e-02, 1.59632508e-03, 2.22312789e-02,
       -7.06128823e-03, -7.91265443e-03, -1.13811912e-02, 2.47549638e-02,
       1.14241475e-03, 3.89707531e-03, -1.29465600e-02, 2.37238668e-02,
       3.96577083e-03, -5.10153174e-02, -2.54053883e-02, -1.42692691e-02,
       1.78726614e-02, 3.21691070e-04, -3.55767123e-02, -2.39640810e-02,
       2.45293323e-02, 8.58828425e-02, 5.13707213e-02, 1.02950842e-04,
       -2.05264445e-02, 1.27361100e-02, -9.05768201e-03, -3.61235738e-02,
       -1.87606532e-02, -3.45113315e-02, 2.38066167e-02, 3.42838727e-02,
       -4.12616553e-03, -8.99987575e-03, 1.54177230e-02, 9.01986659e-03,
       -1.45760644e-02, 4.19377303e-03, 3.32935937e-02, 7.14130849e-02,
       5.95864058e-02, -9.47374664e-03, 3.75472126e-03, -5.05730556e-03,
       3.68198939e-03, -1.18759880e-02, 3.21598584e-03, -3.02184280e-02,
       6.73810439e-03, 6.87536970e-02, 5.50854439e-03, 1.51097905e-02,
       3.82296629e-02, 1.86404176e-02, -9.14767291e-03, 3.07138870e-03,
       -2.44550537e-02, -1.42922886e-02, 2.62486143e-03, 1.58627965e-02,
       3.87231521e-02, 9.50871408e-03, -2.41801068e-02, -3.65156755e-02,
       5.05114614e-04, -2.39786301e-02, 1.21366372e-02, 1.15312915e-02,
       -3.40291183e-04, 4.13689427e-02, 1.53140174e-02, 7.47766811e-03,
       -5.01840934e-03, 1.15140676e-02, -2.41590738e-02, -2.63379198e-02,
       3.96248884e-02, 1.02709942e-02, 9.59704909e-03, 1.72794554e-02,
       -1.15290415e-02, -7.13083951e-04, 1.44027425e-02, -1.68081578e-02,
       1.74577050e-02, 4.63509448e-02, 1.18390592e-02, 1.17442128e-03,
       1.74162313e-02, 1.03874393e-02, 8.95134173e-03, -1.86451152e-02,
       -1.31071554e-02, 1.44478241e-02, 1.91423763e-02, 8.49602465e-03,
       -2.19293013e-02, -1.50085958e-02, 1.15687950e-02, 7.68211856e-03,
       -2.40350179e-02, -4.02721465e-02, -1.95774529e-02,
       -1.97023898e-03, 1.40904263e-02, 4.56814468e-03, 2.07104832e-02,
       1.59983430e-02, 1.23266112e-02, -1.52266014e-03, 5.06490527e-04,
       2.85802502e-02, 4.61358428e-02, -3.85622797e-03, -3.46067175e-03,
       -1.37208030e-02, 1.25215175e-02, -2.92546414e-02, -3.27103189e-03,
       -1.57813020e-02, 2.81206910e-02, 3.79073247e-02, 1.95968505e-02,
       -7.90665485e-03, -4.08984633e-04, 3.96309653e-03, 2.01875437e-02,
       -6.53486513e-03, -1.54548865e-02, -1.10257100e-02, 9.99348704e-03,
       1.88624524e-02, -5.23557013e-04, -3.68790352e-03, -1.01551292e-02,
       7.14302249e-03, -1.13615887e-02, -5.77014387e-02, -1.41075235e-02,
       -5.34121832e-03, -1.79704856e-02, 1.42535800e-02, -7.42065720e-03,
       1.38268340e-02, -1.73597243e-02, 2.69718794e-03, -1.54563086e-02,
       -4.81287343e-03, 3.28556262e-02, 3.59780304e-02, 4.57675233e-02,
       -6.27599144e-03, 2.08872929e-02, 2.24116780e-02, -3.75140039e-03,
       -9.66846477e-03, -1.69011615e-02, 4.51857746e-02, 4.51207943e-02,
       4.51075509e-02, 5.08260280e-02, 7.49359652e-03, 2.78727934e-02,
       -1.09048444e-03, -2.60819495e-02, 2.20084819e-03, 2.41658036e-02,
       -1.02875475e-03, -1.59585103e-03, -1.60393119e-02,
       -3.48860435e-02, -2.23804563e-02, 1.48727018e-02, -1.48593355e-02,
       -6.34951796e-03, 1.28594413e-02, -3.06497863e-03, 3.90095972e-02,
       3.21714841e-02, -3.39724380e-03, 2.77860034e-02, 1.41515462e-02,
       -8.37668125e-03, -1.28302695e-02, 1.34739485e-02, 1.30692450e-02,
       1.94110498e-02, 4.72153275e-04, -1.79052763e-02, 1.22037723e-04,
       1.47191463e-02, -2.22124290e-02, -1.26474490e-02, 5.46613289e-03,
       2.05205102e-02, -1.61670893e-02, -1.73321459e-02, -3.69118564e-02,
       -2.04949304e-02, 2.57871766e-03, -2.81065274e-02, -1.07543701e-02,
       2.50266213e-02, 8.53621680e-03, 3.90486815e-03, 1.66924093e-02,
       -5.78595651e-03, -6.94713648e-03, -1.01597151e-02,
       -2.11346447e-02, -2.72111110e-02, 6.65801577e-03, -1.16016073e-02,
       -1.01352576e-03, 4.08378022e-04, -2.13531237e-02, -7.29709398e-03,
       -1.72095932e-02, -3.19585055e-02, -3.02615948e-02, 1.63085219e-02,
       2.60262899e-02, -1.22038545e-02, 3.39464843e-02, -1.21705215e-02,
       -2.11998522e-02, -1.68261467e-03, -8.43862910e-03,
       -3.19046974e-02, 8.89897998e-03, 7.70959351e-03, 1.95696000e-02,
       3.99066508e-02, -1.57931317e-02, 2.74426560e-03, -2.83123422e-02,
       2.91128131e-03, -2.62212530e-02, 1.56379994e-02, 6.59439899e-03,
       1.70447193e-02, 4.05368842e-02, -2.89476812e-02, -3.42124142e-02,
       -3.55043150e-02, -3.54798771e-02, -8.87663104e-03, 1.23699233e-02,
       8.67137965e-03, -1.71128139e-02, 8.77344608e-03, -1.21330768e-02,
       -4.22602566e-03, 1.01129338e-03, 4.98847011e-03, -2.71761417e-02,
       1.92234851e-02, -1.20283768e-03, -4.11136169e-03, 1.23660750e-04,
       -3.04420702e-02, -1.24682561e-02, -2.30300650e-02,
       -2.69126873e-02, -1.52181676e-02, -1.18716815e-02, 1.99490581e-02,
       1.70797613e-02, 3.84695195e-02, 2.42252871e-02, 1.75060481e-02,
       1.32300993e-02, 3.55851948e-02, 4.71244678e-02, 3.49328406e-02,
       1.98332258e-02, -2.90745962e-03, 2.27398425e-02, 2.07855217e-02,
       2.32395828e-02, 3.05519458e-02, 7.38815987e-04, 3.23043056e-02,
       3.88336778e-02, 1.02689061e-02, 3.09164207e-02, 3.25777866e-02,
       -1.57921808e-03, 1.64937116e-02, -3.00650834e-03, -1.72453411e-02,
       -8.48571304e-03, -6.95648603e-03, 1.67169794e-02, 3.74957058e-03,
       6.43517682e-03, -3.64693999e-02, -6.32916251e-03, -1.76228825e-02,
       -3.95313241e-02, -3.71934101e-02, -2.81887148e-02,
       -3.08186654e-03, 1.81494036e-03, 2.40201745e-02, 1.42669845e-02,
       5.51209226e-02, 1.39128650e-02, 6.78364839e-03, 6.96379133e-03,
       1.92698091e-02, 5.39495330e-03, 2.36071590e-02, 2.40619052e-02,
       -2.17675176e-02, -6.29842095e-03, -1.53134959e-02,
       -1.71916410e-02, -6.45114062e-03, -4.87003988e-03, 5.92602137e-03,
       1.69204324e-02, 1.80333927e-02, -3.34696169e-03, 4.22400236e-02,
       3.56557481e-02, -6.26004068e-03, -8.33305810e-03, 7.86511600e-03,
       -6.13680226e-04, -2.21451535e-03, 5.07483538e-03, -3.03137768e-02,
       -1.64822638e-02, -1.77341420e-02, -2.03437693e-02,
       -2.67887246e-02, -2.60675363e-02, -3.34661230e-02, 2.36999150e-02,
       2.54637208e-02, 8.35402030e-03, 3.85185443e-02, -2.66353996e-03,
       4.57634293e-02, 1.07713435e-02, 1.84092578e-02, 1.04301823e-02,
       -4.87820338e-03, 1.09786482e-03, -1.22435903e-02, 6.69553410e-03,
       -3.10938098e-02, -1.09854154e-02, -3.97450337e-03, 1.35824382e-02,
       8.00032809e-04, 1.84637811e-02, 1.47562847e-02, -1.10521680e-02,
       3.80102172e-02, -3.57399089e-03, 3.79407406e-02, 1.21923676e-02,
       -1.03873499e-02, 1.61339738e-03, -1.92233222e-03, -3.98668787e-03,
       -6.68891845e-03, 2.89662015e-02, -9.99700371e-03, -2.28309501e-02,
       1.07437894e-02, -3.21124271e-02, 1.60731981e-03, -7.26494100e-03,
       2.41041137e-03, 1.50788194e-02, 1.37672070e-02, 4.38963575e-03,
       3.45671661e-02, 7.97323696e-03, 1.17450608e-02, 2.68689170e-03,
       -1.54012050e-02, -2.58516259e-02, 1.14065902e-02, 1.06866928e-02,
       -1.00621618e-02, 7.40739342e-04, -1.15166390e-02, -6.10592254e-02,
       -2.79982742e-02, 1.89635884e-02, 1.02096843e-02, 1.45539222e-02,
       7.24817021e-03, -2.16698716e-03, 1.42743317e-02, 1.60183497e-02,
       -1.29750464e-02, 1.89753380e-02, 3.05689238e-02, -1.21470299e-02,
       1.46163041e-02, -2.46274984e-03, -2.35103071e-02, 1.72234629e-03,
       -8.43194313e-03, -3.33569683e-02, 2.78855115e-02, 2.12434903e-02,
       -1.38470447e-02, -1.65049918e-02, 2.15032976e-02, 2.68381480e-02,
       -1.90812547e-03, -8.56750924e-03, -1.74438823e-02, 1.88179407e-02,
       1.18927946e-02, -1.48911751e-03, -2.92197638e-03, 1.76786873e-02,
       1.00822430e-02, 9.67651419e-03, 1.44848404e-02, 2.35376693e-02,
       3.02584772e-03, 1.54798478e-02, -7.15088192e-03, -1.45763792e-02,
       2.25194078e-02, 1.16407906e-03, 3.36588472e-02, -4.59025754e-03,
       -7.17691239e-03, 3.43436562e-02, 1.10988002e-02, 2.99108564e-03,
       -5.57043869e-03, 2.52008215e-02, -7.39130890e-03, 3.68877091e-02,
       1.18673341e-02, 1.52716665e-02, 1.51472827e-02, 5.22963703e-03,
       -4.05235775e-03, -1.26748662e-02, 5.65952668e-03, 1.87148806e-02,
       5.96942706e-03, -1.35821942e-02, 2.52858573e-03, -8.29405442e-04,
       1.35063613e-02, 3.86386644e-04, 1.11438707e-02, -3.28252296e-04,
       1.53224226e-02, 2.51510255e-02, -6.47812337e-03, 2.57601426e-03,
       8.06960464e-03, -1.13780214e-03, -1.66063216e-02, -8.21036939e-03,
       3.23953631e-04, -4.58319009e-05, 2.89286720e-03, -2.20141951e-02,
       -1.30103435e-02, -3.86604131e-03, 2.43527498e-02, -6.54180208e-03,
       1.97483394e-02, 1.03680734e-02, 1.79224424e-02, 2.97444854e-02,
       2.42295563e-02, -8.36644415e-03, 1.60488747e-02, -4.83738288e-04,
       -1.45479320e-02, 2.75316276e-03, -3.26014939e-03, 2.14109961e-02,
       4.43180883e-03, 2.19045319e-02, -2.27867276e-03, 1.66005678e-02,
       8.66947230e-03, -1.02617722e-02, 1.73429381e-02, -8.67030676e-03,
       -5.63316559e-03, -4.51017031e-03, -2.09049881e-02, 8.41171306e-04,
       2.11852398e-02, -1.80702787e-02, -2.08466742e-02, -1.11329067e-03,
       -1.39492946e-02, 1.57200769e-02, 1.57280564e-02, 1.32170683e-02,
       -1.41667677e-02, 1.62119127e-03, 2.43728701e-03, -1.16661135e-02,
       1.36762653e-02, 9.93992388e-03, 4.65583475e-03, 6.02970086e-03,
       -1.19652124e-02, -6.99373102e-03, 1.35872187e-02, -5.90993604e-03,
       -3.22926976e-03, 3.45042255e-03, -5.96300187e-03, 2.12198179e-02,
       4.04679962e-03, -8.57146864e-04, -1.03142848e-02, -4.23752470e-03,
       2.50096829e-03, 1.15710804e-02, -4.36380226e-03, -9.66250245e-03,
       -1.46010332e-02, 1.25095546e-02, -1.06039355e-02, 7.75807444e-03,
       -6.89331489e-03, -1.24469688e-02, -1.81530751e-02, 8.41515698e-03,
       -1.11040082e-02, 7.52801215e-03, -5.52876433e-03, -1.55929206e-02,
       -1.77820157e-02, 1.82391575e-03, -3.55939544e-03, -2.01054141e-02,
       2.27281284e-02, 6.16501784e-03, -1.16702253e-02, -2.71584815e-03,
       1.02516692e-02, 3.36926505e-02, -6.37534074e-03, -1.22801373e-02,
       2.23172233e-02, -4.20049159e-03, -1.09710183e-03, -2.79544899e-03,
       -2.58013792e-03, 3.15737575e-02, 4.19983380e-02, -5.23470528e-03,
       -1.31428195e-02, -3.45078507e-03, 4.42126254e-03, -5.17174602e-03,
       -2.17252970e-02, -2.14383733e-02, -2.06963141e-02, 9.73840337e-03,
       -1.40707968e-02, 1.42903707e-03, -6.99929195e-03, 9.12010856e-03,
       -6.22335868e-03, 1.25271855e-02, 1.12582771e-02, 9.65102948e-03,
       3.32501121e-02, -1.19481776e-02, -7.89524801e-03, -1.00444546e-02,
       -1.47919580e-02, -5.22506190e-03, -1.98467281e-02, 3.08918022e-03,
       -2.77559962e-02, 1.44495135e-02, -4.27451264e-03, 1.86764933e-02,
       1.27881262e-02, 1.47272283e-02, 1.95595250e-02, 9.62658599e-03,
       -2.03404743e-02, -4.39082459e-02, 3.66426259e-02, 1.97309423e-02,
       5.09989541e-03, 4.94660810e-03, -1.56466663e-02, 7.45050469e-03,
       1.94746666e-02, -5.70393400e-03, -1.68275218e-02, 9.92514100e-03,
       -1.51851494e-02, 3.82495159e-03, 3.19375191e-03, -4.40949807e-03,
       -6.95933262e-03, 1.03660105e-02, -5.75052947e-03, -1.52099570e-02,
       2.80135982e-02, 1.77340384e-03, 1.72419623e-02, 1.46863963e-02,
       -1.23105105e-02, -1.26404092e-02, -1.58839691e-02, 2.13146582e-03,
       -1.29077854e-02, 1.65266041e-02, 1.23643344e-02, 8.37907381e-03,
       3.23480517e-02, 2.58224029e-02, 4.44664173e-02, 2.83026714e-02,
       1.70352440e-02, -2.82895975e-02, -4.16295661e-04, -3.50928493e-03,
       6.96885050e-04, -1.56056080e-02, -9.71143041e-03, -1.88296009e-02,
       2.94246664e-03, -9.40947793e-05, -1.87349711e-02, -3.14312661e-03,
       -2.51070634e-02, 2.15033311e-02, 9.12965648e-03, 9.05231386e-03,
       2.14843894e-03, -6.65975735e-03, 1.45171499e-02, -2.21908670e-02,
       7.58555951e-03, 1.89974010e-02, -2.86760498e-02, 1.95171759e-02,
       -1.38535136e-02, -1.61828641e-02, -9.25150048e-03,
       -2.42958609e-02, -1.86989568e-02, -9.66905616e-03,
       -2.05307286e-02, -5.15419105e-03, 2.95073353e-02, 3.44451927e-02,
       1.27526028e-02, 1.13275563e-02, 1.80433784e-02, 8.01251549e-03,
       2.43851822e-02, -3.76746920e-03, -2.12247274e-03, 4.45790961e-03,
       4.00240794e-02, 1.84759311e-02, -3.85291438e-04, 8.16226471e-03,
       1.72523595e-03, 2.10693143e-02, -2.70563713e-03, -8.10373295e-03,
       2.65659820e-02, -1.17823239e-02, 1.37371086e-02, -7.41519593e-03,
       -5.51344361e-03, -1.05197389e-04, 1.33825988e-02, -1.15987938e-02,
       1.28453434e-03, 3.66649381e-03, -4.85082064e-03, -9.01087187e-03,
       -2.76842788e-02, -1.03863804e-02, -8.59817769e-03,
       -1.83442514e-02, 7.48867460e-04, 2.00924501e-02, -2.20148810e-04,
       6.74187019e-03, 4.79463190e-02, 3.09056863e-02, 1.34698320e-02,
       -1.56771876e-02, 7.00422097e-03, 1.59835536e-02, 1.28032621e-02,
       -1.63756851e-02, -8.05197470e-03, 1.59502253e-02, 2.71403827e-02,
       9.94672719e-03, -9.41810012e-03, -1.76881924e-02, -9.20492690e-03,
       3.81674170e-02, 5.08973934e-03, -2.18019867e-03, 3.17426883e-02,
       -9.76716261e-03, 1.97905060e-02, 2.71754502e-03, -1.94596848e-03,
       5.67711424e-03, 1.69561256e-03, 4.78239218e-03, -1.52345635e-02,
       -8.73511285e-03, -7.73868570e-03, 2.52425522e-02, 1.38049969e-03,
       5.26054716e-03, -4.82525956e-03, 1.44800451e-02, 4.37204055e-02,
       1.21686626e-02, 1.83435287e-02, 1.44510698e-02, 7.52111524e-03,
       1.24526827e-03, 1.84630062e-02, 1.23211023e-04, -3.22288498e-02,
       1.47992931e-02, -1.90601666e-02, -1.10101318e-02, 2.07401309e-02,
       2.31994130e-03, -1.19580850e-02, 3.95011082e-02, -1.54240634e-02,
       -2.98881028e-02, -9.26085690e-04, -2.13600434e-02,
       -2.03419570e-02, -2.94248648e-02, 2.20468845e-02, -2.88871061e-02,
       -6.81819674e-03, -1.33091509e-02, -3.07142530e-02,
       -1.86951365e-02, -2.95300875e-02, -2.24183314e-02,
       -4.04309900e-03, -7.86413811e-03, -2.40323134e-03,
       -1.39760301e-02, -1.99687835e-02, -5.09428792e-03,
       -4.93845949e-03, -1.03832418e-02, -3.74448369e-03, 4.21115942e-02,
       1.53695121e-02, -8.77724681e-03, 3.19728851e-02, 1.82387289e-02,
       -1.84221305e-02, -1.94994956e-02, -4.63580526e-03,
       -9.47639905e-03, 2.16697566e-02, -1.11323921e-03, -1.57464370e-02,
       1.11658657e-02, 3.03942133e-02, -1.53726321e-02, -1.22490628e-02,
       -1.22083398e-02, -2.28525102e-02, -8.95785354e-03,
       -1.30491043e-02, 9.11544135e-04, -1.26952250e-02, -9.45200957e-03,
       -4.23791967e-02, -7.84528628e-03, -1.46813532e-02,
       -2.23601237e-02, 5.43899322e-03, -1.85782015e-02, -2.79985387e-02,
       -2.22351216e-02, -2.31296904e-02, 1.04790311e-02, 1.68179683e-02,
       4.32562828e-02, 2.74522677e-02, 2.92115975e-02, 4.04594205e-02,
       -1.28102340e-02, 1.63663030e-02, 3.01615726e-02, 6.97114784e-03,
       1.71386357e-02, 5.99330524e-03, 1.18183345e-02, 2.30248701e-02,
       2.02599484e-02, -1.33663360e-02, 9.33920220e-03, -9.18390881e-03,
       -3.45197762e-03, -8.45435727e-03, 6.61940174e-03, 1.53350346e-02,
       -1.48617337e-02, 2.36749239e-02, -8.39136168e-03, 8.35706573e-03,
       -1.31820627e-02, -1.77921634e-02, 1.98059512e-04, -1.21174213e-02,
       -2.88889334e-02, 8.91937781e-03, -3.36812693e-03, -1.80669893e-02,
       6.65010372e-03, -1.25054386e-03, 1.31723862e-02, 2.29823422e-02,
       1.60455704e-02, 1.21694729e-02, 1.55560290e-02, -7.00028322e-04,
       1.62262097e-02, 1.95841454e-02, 1.03887252e-03, -3.41520063e-03,
       -9.11403075e-03, -3.19457427e-02, -1.95485242e-02, 1.55081786e-02,
       -4.78500035e-03, 1.40556518e-03, -1.44055979e-02, -5.67979738e-03,
       -1.17217796e-02, -3.36977682e-04, -2.33672205e-02,
       -1.22311048e-03, -1.02258800e-02, -1.70618687e-02, 3.20266979e-03,
       1.08135790e-02, 1.11359591e-02, -2.00762344e-03, -1.39430556e-02,
       -2.01864578e-02, -7.17081875e-03, 1.79528035e-02, 4.72704321e-03,
       -3.66711640e-03, -1.43045289e-02, 5.28707635e-04, 2.09689811e-02,
       -1.18768914e-02, -3.56811695e-02, -6.44621952e-03, 3.50380801e-02,
       2.28392817e-02, 1.27903037e-02, -2.32974460e-04, 2.27100123e-02,
       4.66607790e-03, -7.16955261e-03, -1.68235060e-02, 3.30357323e-03,
       1.10544860e-02, 1.31353270e-02, 1.90523583e-02, -2.92638429e-02,
       9.29704227e-04, 7.54477317e-03, 1.05904900e-02, -4.09797765e-03,
       -2.62793736e-04, 7.54826795e-03, -2.86785839e-03, -2.34126225e-02,
       -3.27691305e-05, 5.77066047e-03, -8.08583107e-03, 7.35319639e-03,
       1.35476440e-02, -2.68498249e-03, -5.33430651e-03, -4.79690731e-03,
       -3.09051038e-03, -1.19270002e-02, 2.58891354e-03, 1.80626772e-02,
       1.53557649e-02, 5.72078105e-04, -1.32409157e-02, 2.30300296e-02,
       1.20076155e-02, 1.74615625e-02, -4.63332050e-03, -3.54341790e-03,
       2.19432097e-02, -1.55154588e-02, -2.08533555e-03, -3.39507847e-03,
       1.68900117e-02, -5.34041412e-03, -7.46364845e-03, -2.92307977e-02,
       1.22321388e-02, 5.93883218e-03, 7.33342487e-04, 1.31362686e-02,
       8.83295946e-03, 2.83011012e-02, -6.39233412e-03, 6.73312601e-03,
       4.16216301e-03, 3.46896239e-02, 5.32964338e-03, -3.38094570e-02,
       -1.98541284e-02, 1.91284642e-02, 1.53311221e-02, -2.11738627e-02,
       -5.63101424e-03, -2.16885041e-02, 1.53115345e-02, 8.68621841e-03,
       -2.37975735e-02, -1.46306306e-02, 4.21418576e-03, 3.23357098e-02,
       2.14911234e-02, -9.69295390e-03, -2.37156311e-03, 2.30177175e-02,
       1.81924496e-02, 1.18539305e-02, 2.54330738e-03, 2.77093379e-03,
       1.19162472e-02, 1.69331878e-02, -1.96854360e-02, -8.09561554e-03,
       2.03029066e-03, 5.11516966e-02, -1.63004491e-02, -8.12079571e-03,
       3.72346342e-02, -5.13399392e-03, 1.79993771e-02, -1.92931015e-02,
       2.97417887e-03, 2.44552121e-02, 2.36701313e-02, -2.78699794e-04,
       1.78688578e-02, 2.94329897e-02, 2.13661976e-02, 5.79834962e-03,
       -1.49475597e-02, -8.78812838e-03, -9.78062395e-03, 1.52455503e-03,
       -9.18986928e-03, -1.85410853e-03, -1.04609057e-02, 1.69653874e-02,
       2.32080973e-04, -2.53477246e-02, -9.15150717e-03, -7.31413427e-04,
       4.61775623e-03, -4.32243943e-03, 6.45802310e-03, -7.18097482e-03,
       -2.31397944e-03, 3.96240765e-04, 1.86487455e-02, -4.17633308e-03,
       2.21865382e-02, 2.10808646e-02, -1.87394507e-02, 2.08440027e-03,
       6.50577201e-03, 2.48257183e-02, 1.26160216e-02, -1.83319133e-02,
       -8.45252909e-03, -9.09901969e-03, 3.02923210e-02, 2.80134124e-03,
       7.03627011e-03, 3.87005024e-02, -1.10406000e-02, 4.40059938e-02,
       1.87060665e-02, 2.74707582e-02, -4.47073113e-03, 8.94978177e-03,
       -8.68841540e-03, -5.55822998e-03, -2.15164926e-02,
       -1.91089767e-03, -1.12266773e-02, -8.36270675e-03,
       -2.59958208e-02, 4.97631542e-03, 7.63536105e-03, -1.89380310e-02,
       1.09147877e-02, 5.02447551e-03, -2.77692755e-03, 2.67988481e-02,
       -4.94460622e-03, -1.24504277e-02, 2.19549844e-03, 1.10605266e-02,
       -5.02501102e-03, 3.44736082e-03, 1.15375977e-03, -1.04825303e-03,
       -1.31688928e-02, 8.06502881e-04, -1.32572539e-02, -8.04800820e-03,
       3.59814465e-02, 2.82987300e-02, -3.77068599e-03, 1.78402252e-02,
       -1.19577697e-03, 1.77662428e-02, -7.60072237e-03, 7.42471404e-03,
       3.14552449e-02, -1.18380962e-02, -1.52841294e-02, -3.61343077e-03,
       -9.34106018e-03, 3.74231022e-05, 2.10899413e-02, 9.07869637e-03,
       1.23517234e-02, 5.35570178e-03, -5.72076766e-03, -8.49787425e-03,
       6.50078803e-03, -5.76078519e-03, -1.69192515e-02, -7.25628063e-03,
       1.03699723e-02, 3.08484510e-02, 9.68122203e-03, -2.27477192e-03,
       1.05096688e-02, 1.03952773e-02, 9.56154149e-03, 2.53544431e-02,
       3.18747088e-02, -6.82337582e-03, 4.41287505e-03, 2.30546426e-02,
       -9.88289993e-03, 6.18757447e-03, 2.75258590e-02, 7.47693796e-03,
       -3.09828054e-02, 1.24542760e-02, -1.06760114e-02, -1.41297770e-03,
       1.44622736e-02, -7.64027238e-03, -8.51436332e-03, 7.40553532e-03,
       6.00525411e-03, 2.55870428e-02, -7.13505130e-03, -2.26522665e-02,
       1.65118854e-02, 4.86523472e-03, -1.54955005e-02, 8.44692811e-03,
       -1.67124216e-02, -8.42637382e-03, -2.66187694e-02, 4.26451024e-03,
       -1.45964362e-02, 7.43092271e-03, -3.91905382e-03, -2.61070132e-02,
       -1.61232008e-03, 3.71078798e-03, -4.27459925e-03, 7.90315215e-03,
       8.40419997e-03, -2.54203808e-02, -6.72496529e-03, -1.81442443e-02,
       -2.66939681e-02, 1.35109108e-02, -1.51258847e-02, -8.83064698e-03,
       -1.48234963e-02, 7.35731050e-03, -2.05349480e-03, -3.54528544e-03,
       5.15587581e-03, -1.34449303e-02, 3.27201821e-02, -1.90801173e-02,
       2.56153406e-03, 1.17303813e-02, 2.69997660e-02, 9.50454175e-03,
       2.20808573e-02, 6.18068222e-03, -2.64001805e-02, 3.05108074e-02,
       -6.95572700e-03, 1.57489479e-02, -1.66063514e-02, 9.10356548e-03,
       -1.94474496e-02, -1.82688832e-02, 3.61716840e-03, 2.94105280e-02,
       3.82312648e-02, -4.95996233e-03, 2.08791681e-02, 1.78710520e-02,
       2.64228471e-02, -1.08250761e-02, 1.24276979e-02, 1.65715683e-02,
       -7.35240849e-03, 2.87915394e-02, -2.04137005e-02, -1.13900509e-02,
       1.01555716e-02, -2.50988994e-02, -2.73780990e-02, -1.45525550e-02,
       9.12974682e-03, 2.68672258e-02, 4.35275994e-02, 1.05895279e-02,
       1.32306311e-02, 1.02848317e-02, 4.48941700e-02, -8.49124789e-03,
       1.17044393e-02, 3.71090509e-02, -1.51241841e-02, 1.49059724e-02,
       -2.01426959e-03, -1.51747521e-02, -1.85706932e-02, 6.14567427e-03,
       -1.58322547e-02, 8.41205288e-03, -1.86578538e-02, -3.88287520e-03,
       1.77643970e-02, -2.17631483e-03, 1.16416556e-03, 2.16323882e-02,
       -1.19926352e-02, -1.02183595e-02, 8.95565283e-03, -1.09061943e-02,
       1.22079730e-03, 2.10711290e-03, -2.69214716e-02, -2.93456367e-03,
       3.78097454e-03, -6.77143456e-03, -6.87305350e-03, 5.58548048e-03,
       -4.90370067e-03, -1.19699081e-02, 1.12843504e-02, -2.07024515e-02,
       1.57907363e-02, 1.31918536e-03, 6.68656221e-03, -4.47243219e-03,
       3.40712816e-02, -8.87771882e-03, 5.25526528e-04, 1.50575023e-02,
       -2.19623670e-02, -1.66798895e-03, -1.98769122e-02,
       -4.93487809e-03, 5.37650520e-03, -6.47386210e-03, -9.66084842e-03,
       -1.20042339e-02, 5.57242054e-03, -1.85917113e-02, 5.51097328e-03,
       1.33809242e-02, -3.15027032e-03, -1.70634955e-03, 1.03178276e-02,
       -1.94415264e-02, 3.01026762e-03, 4.37032757e-03, -8.03831592e-03,
       -5.57531323e-03, 1.00984972e-03, 1.68076362e-02, -8.31334665e-03,
       -5.73548069e-03, 4.67230624e-04, 2.81839557e-02, -3.58873676e-03,
       -2.32577343e-02, -1.82549498e-04, -1.45292515e-02, 1.89295318e-02,
       1.16498210e-02, 2.27406919e-02, 1.17503293e-03, 2.80481819e-02,
       2.70191045e-03, -8.53617676e-03, -4.15723491e-03, -1.68396980e-02,
       -1.18031201e-03, -1.05603850e-02, 2.46418845e-02, -4.69357194e-03,
       -6.64127106e-03, -5.73466299e-03, -5.44600794e-03,
       -2.25447351e-03, -6.86750654e-03, 3.36297788e-02, -1.53277107e-02,
       -1.00195073e-02, -1.77254695e-02, -2.50454396e-02,
       -2.20028311e-03, -2.59793475e-02, -1.23788444e-02, 3.02468967e-02,
       2.47503016e-02, -3.10893394e-02, 2.03831834e-04, -2.03909334e-02,
       5.24737500e-03, 1.05637563e-02, 8.58882559e-05, 2.20122673e-02,
       1.45106129e-02, 1.50662838e-02, -1.16162980e-02, -2.06511072e-03,
       5.15240803e-03, 4.85126441e-03, -5.72471227e-03, 6.96578948e-03,
       1.90310739e-02, -4.51636547e-03, 3.15261394e-04, 1.48459442e-03,
       -8.82137101e-03, 6.65770750e-03, -8.04098730e-04, 2.17095260e-02,
       9.95899271e-03, 9.19636991e-03, 1.66870933e-02, 2.80898006e-04,
       -3.06150485e-02, -1.08604226e-02, -3.21776210e-03, 1.74330419e-03,
       -2.12841248e-03, -5.97208680e-04, -1.81750562e-02, 3.47113400e-03,
       -8.20031762e-03, -2.31335908e-02, -2.66295560e-02,
       -2.31438689e-02, 3.83082917e-03, 9.04547889e-03, 2.30516195e-02,
       2.49350145e-02, -7.44405016e-03, -7.32399570e-03, 2.56921761e-02,
       -2.24711047e-03, 3.38495150e-02, -1.91740692e-02, 1.62735879e-02,
       -1.03516439e-02, -5.04263397e-03, -8.99908971e-03,
       -6.68933196e-03, -6.53997203e-03, -1.10237608e-02,
       -1.96877425e-03, 8.32165498e-03, 6.50656736e-03, -7.10043218e-03,
       -1.52617805e-02, 1.89422779e-02, 7.25036603e-04, 1.85452309e-02,
       -6.65167533e-03, -1.28912162e-02, -4.45491746e-02,
       -3.13417660e-03, -6.96275942e-03, -2.15689428e-02, 1.27876867e-02,
       -9.56506375e-03, -2.29073688e-03, -1.26229571e-02,
       -2.62203701e-02, 1.78717787e-03, 9.81034525e-03, -4.86653124e-04,
       1.20445229e-02, 1.33683123e-02, 3.26025374e-02, -2.92556034e-03,
       8.69783480e-03, 9.16914549e-03, -3.06874304e-03, 1.22301904e-02,
       1.38267297e-02, -5.52365882e-03, -1.10529745e-02, -2.02960102e-03,
       -7.62017444e-04, 7.33444095e-03, -2.27216687e-02, -8.79567768e-03,
       1.56292580e-02, 2.79970076e-02, -1.63060892e-02, 2.40818914e-02,
       2.11463887e-02, 7.14170374e-03, 1.89137999e-02, 1.45250866e-02,
       4.53453744e-03, 9.42345522e-03, -5.13081381e-04, -3.60633023e-02,
       6.22874638e-03, 6.14108425e-03, 5.78787993e-04, -1.09481327e-02,
       -2.36377120e-02, 1.22394804e-02, 1.66510548e-02, -1.15830302e-02,
       -5.06976759e-03, -3.93975480e-03, 1.20356260e-02, 1.81452036e-02,
       2.83354372e-02, 8.50881264e-03, -1.30163506e-02, -2.28048991e-02,
       7.49155506e-03, -2.78852740e-03, 1.25463782e-02, 7.34419562e-03,
       -1.04477499e-02, 1.54341443e-03, -1.54076768e-02, 3.70260924e-02,
       3.06794625e-02, -1.68687887e-02, -1.40452934e-02, 2.05519311e-02,
       1.71527974e-02, 1.34043228e-02, 9.66163236e-04, 1.82939805e-02,
       1.58435348e-02, -5.59567520e-03, -1.29067246e-02, -2.05698553e-02,
       -1.40444776e-02, -4.90367971e-03, 1.02551021e-02, -4.36812639e-03,
       -1.12986867e-03, 6.76642684e-03, 1.26411803e-02, 1.12442579e-03,
       -2.67115491e-03, 6.02257764e-03, 1.82194188e-02, -1.83106326e-02,
       5.43319993e-03, 1.46612655e-02, -1.03519568e-02, 8.23601335e-03,
       -3.33465775e-03, -1.37224160e-02, -3.89850028e-02,
       -1.37288088e-03, -6.40878500e-03, -9.73375048e-03,
       -8.97945836e-03, -6.90155912e-06, 2.37242915e-02, 2.39928020e-03,
       -7.98224879e-04, -1.01694415e-04, 1.26437489e-02, 8.08642898e-03,
       2.23654415e-02, -1.47546204e-02, 1.76988877e-02, -5.15365787e-03,
       -1.09081320e-03, -1.12730674e-02, -1.36198048e-02,
       -1.69803686e-02, 1.75576508e-02, 5.33934357e-03, -1.22510307e-02,
       -1.48983775e-02, -5.36397984e-03, 1.59058776e-02, 1.73513740e-02,
       2.89899157e-03, -4.11318662e-03, 9.36301984e-03, -1.85335912e-02,
       -7.38792680e-03, 1.61747599e-03, -3.14166397e-02, -8.15871358e-03,
       2.30133049e-02, 1.75377652e-02, -7.83624360e-04, -1.54890520e-02,
       -3.59952869e-03, 1.38095729e-02, 3.94006111e-02, -7.56232440e-03,
       7.77532160e-03, 8.56514927e-03, 1.43348360e-02, -1.03710862e-02,
       1.28210448e-02, -1.08155925e-02, 1.44184409e-02, 2.08340082e-02,
       -5.31331152e-02, -1.73347555e-02, -1.10950796e-02, 3.28505319e-03,
       -6.23937184e-03, -2.31023747e-02, -1.08235413e-02, 1.26254540e-02,
       -1.62074566e+00 ]
